<?xml version="1.0"?>
<opencv_storage>
<cascade>
  <stageType>BOOST</stageType>
  <featureType>HAAR</featureType>
  <height>32</height>
  <width>32</width>
  <stageParams>
    <boostType>GAB</boostType>
    <minHitRate>9.9500000476837158e-01</minHitRate>
    <maxFalseAlarm>5.0000000000000000e-01</maxFalseAlarm>
    <weightTrimRate>9.4999998807907104e-01</weightTrimRate>
    <maxDepth>1</maxDepth>
    <maxWeakCount>100</maxWeakCount></stageParams>
  <featureParams>
    <maxCatCount>0</maxCatCount>
    <featSize>1</featSize>
    <mode>BASIC</mode></featureParams>
  <stageNum>3</stageNum>
  <stages>
    <!-- stage 0 -->
    <_>
      <maxWeakCount>4</maxWeakCount>
      <stageThreshold>-2.2763001918792725e+00</stageThreshold>
      <weakClassifiers>
        <_>
          <internalNodes>
            0 -1 5 1.1419679969549179e-02</internalNodes>
          <leafValues>
            -9.6854120492935181e-01 5.1012754440307617e-02</leafValues></_>
        <_>
          <internalNodes>
            0 -1 10 4.0627829730510712e-03</internalNodes>
          <leafValues>
            -9.2071825265884399e-01 3.1650611758232117e-01</leafValues></_>
        <_>
          <internalNodes>
            0 -1 9 -3.9612669497728348e-03</internalNodes>
          <leafValues>
            4.2771071195602417e-01 -8.0894970893859863e-01</leafValues></_>
        <_>
          <internalNodes>
            0 -1 4 4.3994095176458359e-03</internalNodes>
          <leafValues>
            -8.1475162506103516e-01 4.7795504331588745e-01</leafValues></_></weakClassifiers></_>
    <!-- stage 1 -->
    <_>
      <maxWeakCount>4</maxWeakCount>
      <stageThreshold>-2.2186417579650879e+00</stageThreshold>
      <weakClassifiers>
        <_>
          <internalNodes>
            0 -1 6 7.1976818144321442e-03</internalNodes>
          <leafValues>
            -9.7294253110885620e-01 5.6534506380558014e-02</leafValues></_>
        <_>
          <internalNodes>
            0 -1 1 7.3018670082092285e-02</internalNodes>
          <leafValues>
            -8.2634657621383667e-01 6.2586617469787598e-01</leafValues></_>
        <_>
          <internalNodes>
            0 -1 5 6.6826506517827511e-03</internalNodes>
          <leafValues>
            -8.8141304254531860e-01 3.9245259761810303e-01</leafValues></_>
        <_>
          <internalNodes>
            0 -1 2 -4.2729573324322701e-03</internalNodes>
          <leafValues>
            4.6206030249595642e-01 -7.1415007114410400e-01</leafValues></_></weakClassifiers></_>
    <!-- stage 2 -->
    <_>
      <maxWeakCount>5</maxWeakCount>
      <stageThreshold>-2.0680272579193115e+00</stageThreshold>
      <weakClassifiers>
        <_>
          <internalNodes>
            0 -1 0 4.0693426132202148e-01</internalNodes>
          <leafValues>
            -9.0890246629714966e-01 3.3654618263244629e-01</leafValues></_>
        <_>
          <internalNodes>
            0 -1 7 9.0363118797540665e-03</internalNodes>
          <leafValues>
            -9.1772300004959106e-01 2.3711453378200531e-01</leafValues></_>
        <_>
          <internalNodes>
            0 -1 8 4.3135313317179680e-03</internalNodes>
          <leafValues>
            -8.1019639968872070e-01 2.4992987513542175e-01</leafValues></_>
        <_>
          <internalNodes>
            0 -1 11 8.7110756430774927e-04</internalNodes>
          <leafValues>
            -9.6658873558044434e-01 2.8102490305900574e-01</leafValues></_>
        <_>
          <internalNodes>
            0 -1 3 -5.6738210842013359e-03</internalNodes>
          <leafValues>
            3.4732535481452942e-01 -8.6706775426864624e-01</leafValues></_></weakClassifiers></_></stages>
  <features>
    <_>
      <rects>
        <_>
          1 3 30 23 -1.</_>
        <_>
          11 3 10 23 3.</_></rects>
      <tilted>0</tilted></_>
    <_>
      <rects>
        <_>
          4 4 24 5 -1.</_>
        <_>
          12 4 8 5 3.</_></rects>
      <tilted>0</tilted></_>
    <_>
      <rects>
        <_>
          8 10 15 3 -1.</_>
        <_>
          8 11 15 1 3.</_></rects>
      <tilted>0</tilted></_>
    <_>
      <rects>
        <_>
          10 9 8 10 -1.</_>
        <_>
          10 9 4 5 2.</_>
        <_>
          14 14 4 5 2.</_></rects>
      <tilted>0</tilted></_>
    <_>
      <rects>
        <_>
          10 10 3 6 -1.</_>
        <_>
          10 13 3 3 2.</_></rects>
      <tilted>0</tilted></_>
    <_>
      <rects>
        <_>
          11 9 9 3 -1.</_>
        <_>
          14 9 3 3 3.</_></rects>
      <tilted>0</tilted></_>
    <_>
      <rects>
        <_>
          13 9 6 4 -1.</_>
        <_>
          15 9 2 4 3.</_></rects>
      <tilted>0</tilted></_>
    <_>
      <rects>
        <_>
          13 9 6 8 -1.</_>
        <_>
          15 9 2 8 3.</_></rects>
      <tilted>0</tilted></_>
    <_>
      <rects>
        <_>
          14 22 4 6 -1.</_>
        <_>
          14 24 4 2 3.</_></rects>
      <tilted>0</tilted></_>
    <_>
      <rects>
        <_>
          14 24 4 4 -1.</_>
        <_>
          14 26 4 2 2.</_></rects>
      <tilted>0</tilted></_>
    <_>
      <rects>
        <_>
          19 11 3 4 -1.</_>
        <_>
          19 13 3 2 2.</_></rects>
      <tilted>0</tilted></_>
    <_>
      <rects>
        <_>
          20 11 1 6 -1.</_>
        <_>
          20 14 1 3 2.</_></rects>
      <tilted>0</tilted></_></features></cascade>
</opencv_storage>
